<?xml version="1.0"?>
<opencv_storage>
<cascade>
  <stageType>BOOST</stageType>
  <featureType>HAAR</featureType>
  <height>20</height>
  <width>20</width>
  <stageParams>
    <boostType>GAB</boostType>
    <minHitRate>9.9500000476837158e-01</minHitRate>
    <maxFalseAlarm>5.0000000000000000e-01</maxFalseAlarm>
    <weightTrimRate>9.4999999999999996e-01</weightTrimRate>
    <maxDepth>1</maxDepth>
    <maxWeakCount>100</maxWeakCount></stageParams>
  <featureParams>
    <maxCatCount>0</maxCatCount>
    <featSize>1</featSize>
    <mode>BASIC</mode></featureParams>
  <stageNum>11</stageNum>
  <stages>
    <!-- stage 0 -->
    <_>
      <maxWeakCount>10</maxWeakCount>
      <stageThreshold>-1.1552135944366455e+00</stageThreshold>
      <weakClassifiers>
        <_>
          <internalNodes>
            0 -1 107 -4.1459370404481888e-03</internalNodes>
          <leafValues>
            6.7040497064590454e-01 -5.9816515445709229e-01</leafValues></_>
        <_>
          <internalNodes>
            0 -1 81 3.7470854818820953e-02</internalNodes>
          <leafValues>
            -2.4455904960632324e-01 6.8476295471191406e-01</leafValues></_>
        <_>
          <internalNodes>
            0 -1 78 -3.6719779018312693e-04</internalNodes>
          <leafValues>
            3.9305567741394043e-01 -3.9192864298820496e-01</leafValues></_>
        <_>
          <internalNodes>
            0 -1 103 -2.7524840552359819e-03</internalNodes>
          <leafValues>
            4.3250375986099243e-01 -2.8878909349441528e-01</leafValues></_>
        <_>
          <internalNodes>
            0 -1 5 8.1211514770984650e-02</internalNodes>
          <leafValues>
            -2.0640964806079865e-01 6.3410389423370361e-01</leafValues></_>
        <_>
          <internalNodes>
            0 -1 37 5.5268853902816772e-03</internalNodes>
          <leafValues>
            -3.4783649444580078e-01 5.2148956060409546e-01</leafValues></_>
        <_>
          <internalNodes>
            0 -1 17 3.3792041242122650e-02</internalNodes>
          <leafValues>
            2.3286327719688416e-01 -6.1583214998245239e-01</leafValues></_>
        <_>
          <internalNodes>
            0 -1 163 1.8108463846147060e-03</internalNodes>
          <leafValues>
            -3.5319903492927551e-01 3.3458450436592102e-01</leafValues></_>
        <_>
          <internalNodes>
            0 -1 109 -8.7455175817012787e-03</internalNodes>
          <leafValues>
            -6.8088221549987793e-01 1.8793323636054993e-01</leafValues></_>
        <_>
          <internalNodes>
            0 -1 171 -2.0895930938422680e-03</internalNodes>
          <leafValues>
            -7.3803031444549561e-01 1.4176605641841888e-01</leafValues></_></weakClassifiers></_>
    <!-- stage 1 -->
    <_>
      <maxWeakCount>9</maxWeakCount>
      <stageThreshold>-7.2503924369812012e-01</stageThreshold>
      <weakClassifiers>
        <_>
          <internalNodes>
            0 -1 30 -8.8513046503067017e-03</internalNodes>
          <leafValues>
            6.8584966659545898e-01 -3.9078751206398010e-01</leafValues></_>
        <_>
          <internalNodes>
            0 -1 68 6.8984646350145340e-03</internalNodes>
          <leafValues>
            -3.2823649048805237e-01 5.0859749317169189e-01</leafValues></_>
        <_>
          <internalNodes>
            0 -1 2 1.3389587402343750e-01</internalNodes>
          <leafValues>
            -1.7801222205162048e-01 7.5124573707580566e-01</leafValues></_>
        <_>
          <internalNodes>
            0 -1 100 -8.1620335578918457e-02</internalNodes>
          <leafValues>
            -7.5492149591445923e-01 1.5911227464675903e-01</leafValues></_>
        <_>
          <internalNodes>
            0 -1 126 7.0782878901809454e-04</internalNodes>
          <leafValues>
            -4.1087925434112549e-01 2.6777598261833191e-01</leafValues></_>
        <_>
          <internalNodes>
            0 -1 5 6.2678173184394836e-02</internalNodes>
          <leafValues>
            -1.6917064785957336e-01 5.3529280424118042e-01</leafValues></_>
        <_>
          <internalNodes>
            0 -1 143 1.1569163762032986e-02</internalNodes>
          <leafValues>
            -2.8652787208557129e-01 4.0552362799644470e-01</leafValues></_>
        <_>
          <internalNodes>
            0 -1 158 1.1601210571825504e-03</internalNodes>
          <leafValues>
            -2.2067740559577942e-01 4.3061742186546326e-01</leafValues></_>
        <_>
          <internalNodes>
            0 -1 8 3.3378854393959045e-02</internalNodes>
          <leafValues>
            -1.9336703419685364e-01 4.7629904747009277e-01</leafValues></_></weakClassifiers></_>
    <!-- stage 2 -->
    <_>
      <maxWeakCount>13</maxWeakCount>
      <stageThreshold>-9.5978242158889771e-01</stageThreshold>
      <weakClassifiers>
        <_>
          <internalNodes>
            0 -1 106 -8.4805570077151060e-04</internalNodes>
          <leafValues>
            5.4923164844512939e-01 -5.4707378149032593e-01</leafValues></_>
        <_>
          <internalNodes>
            0 -1 96 -2.7426835149526596e-02</internalNodes>
          <leafValues>
            5.2804094552993774e-01 -2.4765029549598694e-01</leafValues></_>
        <_>
          <internalNodes>
            0 -1 53 2.1279804408550262e-02</internalNodes>
          <leafValues>
            1.9925659894943237e-01 -6.6156852245330811e-01</leafValues></_>
        <_>
          <internalNodes>
            0 -1 160 -2.5710528716444969e-03</internalNodes>
          <leafValues>
            -8.7427145242691040e-01 9.5763288438320160e-02</leafValues></_>
        <_>
          <internalNodes>
            0 -1 79 -1.3534094905480742e-03</internalNodes>
          <leafValues>
            1.9808122515678406e-01 -4.3212425708770752e-01</leafValues></_>
        <_>
          <internalNodes>
            0 -1 72 -3.3397711813449860e-02</internalNodes>
          <leafValues>
            -7.2171986103057861e-01 1.3833552598953247e-01</leafValues></_>
        <_>
          <internalNodes>
            0 -1 21 2.5355242192745209e-02</internalNodes>
          <leafValues>
            -2.2006738185882568e-01 4.8321771621704102e-01</leafValues></_>
        <_>
          <internalNodes>
            0 -1 20 6.2199812382459641e-03</internalNodes>
          <leafValues>
            -2.5493898987770081e-01 5.6778806447982788e-01</leafValues></_>
        <_>
          <internalNodes>
            0 -1 66 -2.1355321630835533e-02</internalNodes>
          <leafValues>
            -6.4891576766967773e-01 1.4900740981101990e-01</leafValues></_>
        <_>
          <internalNodes>
            0 -1 64 1.6278438270092010e-02</internalNodes>
          <leafValues>
            1.4063633978366852e-01 -6.1207479238510132e-01</leafValues></_>
        <_>
          <internalNodes>
            0 -1 115 -6.6263652406632900e-03</internalNodes>
          <leafValues>
            4.5513838529586792e-01 -2.2337369620800018e-01</leafValues></_>
        <_>
          <internalNodes>
            0 -1 91 1.1412475258111954e-02</internalNodes>
          <leafValues>
            -2.8036755323410034e-01 3.8968807458877563e-01</leafValues></_>
        <_>
          <internalNodes>
            0 -1 49 -2.0601905882358551e-02</internalNodes>
          <leafValues>
            -5.9347701072692871e-01 1.7922008037567139e-01</leafValues></_></weakClassifiers></_>
    <!-- stage 3 -->
    <_>
      <maxWeakCount>14</maxWeakCount>
      <stageThreshold>-6.7765033245086670e-01</stageThreshold>
      <weakClassifiers>
        <_>
          <internalNodes>
            0 -1 99 2.8654877096414566e-02</internalNodes>
          <leafValues>
            5.6410256773233414e-02 7.6883852481842041e-01</leafValues></_>
        <_>
          <internalNodes>
            0 -1 14 8.4404431283473969e-02</internalNodes>
          <leafValues>
            -1.0643285512924194e-01 8.1240230798721313e-01</leafValues></_>
        <_>
          <internalNodes>
            0 -1 67 -1.9910717383027077e-03</internalNodes>
          <leafValues>
            1.9592869281768799e-01 -6.0408806800842285e-01</leafValues></_>
        <_>
          <internalNodes>
            0 -1 131 -2.1218102119746618e-05</internalNodes>
          <leafValues>
            2.2796502709388733e-01 -4.3556919693946838e-01</leafValues></_>
        <_>
          <internalNodes>
            0 -1 162 4.3231286108493805e-03</internalNodes>
          <leafValues>
            9.6819348633289337e-02 -8.4182256460189819e-01</leafValues></_>
        <_>
          <internalNodes>
            0 -1 47 -8.3398923277854919e-02</internalNodes>
          <leafValues>
            -9.5764029026031494e-01 7.6878614723682404e-02</leafValues></_>
        <_>
          <internalNodes>
            0 -1 90 9.9433511495590210e-03</internalNodes>
          <leafValues>
            8.2156635820865631e-02 -8.0309242010116577e-01</leafValues></_>
        <_>
          <internalNodes>
            0 -1 102 -1.2061963789165020e-03</internalNodes>
          <leafValues>
            2.7956336736679077e-01 -3.0274713039398193e-01</leafValues></_>
        <_>
          <internalNodes>
            0 -1 5 8.8341981172561646e-02</internalNodes>
          <leafValues>
            -1.6024410724639893e-01 6.0302549600601196e-01</leafValues></_>
        <_>
          <internalNodes>
            0 -1 56 1.8173165619373322e-02</internalNodes>
          <leafValues>
            -2.4043403565883636e-01 3.8484814763069153e-01</leafValues></_>
        <_>
          <internalNodes>
            0 -1 36 2.9724496416747570e-03</internalNodes>
          <leafValues>
            1.1496923863887787e-01 -6.8420904874801636e-01</leafValues></_>
        <_>
          <internalNodes>
            0 -1 23 1.5653323382139206e-02</internalNodes>
          <leafValues>
            -2.3898403346538544e-01 3.2037496566772461e-01</leafValues></_>
        <_>
          <internalNodes>
            0 -1 105 3.2454193569719791e-03</internalNodes>
          <leafValues>
            8.7408632040023804e-02 -9.1436958312988281e-01</leafValues></_>
        <_>
          <internalNodes>
            0 -1 26 2.1346181631088257e-02</internalNodes>
          <leafValues>
            -2.0283021032810211e-01 4.2359742522239685e-01</leafValues></_></weakClassifiers></_>
    <!-- stage 4 -->
    <_>
      <maxWeakCount>14</maxWeakCount>
      <stageThreshold>-6.4285272359848022e-01</stageThreshold>
      <weakClassifiers>
        <_>
          <internalNodes>
            0 -1 39 8.4679350256919861e-03</internalNodes>
          <leafValues>
            -1.5722379088401794e-01 5.9626036882400513e-01</leafValues></_>
        <_>
          <internalNodes>
            0 -1 172 -1.5872891992330551e-02</internalNodes>
          <leafValues>
            6.7162370681762695e-01 -1.5269304811954498e-01</leafValues></_>
        <_>
          <internalNodes>
            0 -1 142 5.1343711093068123e-03</internalNodes>
          <leafValues>
            -1.9391079246997833e-01 4.6947917342185974e-01</leafValues></_>
        <_>
          <internalNodes>
            0 -1 105 -1.3828135561197996e-03</internalNodes>
          <leafValues>
            -6.9025081396102905e-01 1.0872276127338409e-01</leafValues></_>
        <_>
          <internalNodes>
            0 -1 178 4.7816717997193336e-03</internalNodes>
          <leafValues>
            -2.0274794101715088e-01 4.5608404278755188e-01</leafValues></_>
        <_>
          <internalNodes>
            0 -1 82 2.6510220021009445e-02</internalNodes>
          <leafValues>
            -1.7563499510288239e-01 5.3294306993484497e-01</leafValues></_>
        <_>
          <internalNodes>
            0 -1 93 -1.1369340121746063e-02</internalNodes>
          <leafValues>
            4.7448480129241943e-01 -2.0773117244243622e-01</leafValues></_>
        <_>
          <internalNodes>
            0 -1 161 -1.7996664391830564e-03</internalNodes>
          <leafValues>
            -6.5242838859558105e-01 1.4849489927291870e-01</leafValues></_>
        <_>
          <internalNodes>
            0 -1 95 7.3901480063796043e-03</internalNodes>
          <leafValues>
            -1.7249596118927002e-01 5.7035166025161743e-01</leafValues></_>
        <_>
          <internalNodes>
            0 -1 104 4.3951803818345070e-03</internalNodes>
          <leafValues>
            -2.4561996757984161e-01 3.6505296826362610e-01</leafValues></_>
        <_>
          <internalNodes>
            0 -1 154 1.4946550130844116e-02</internalNodes>
          <leafValues>
            9.9796935915946960e-02 -8.5398197174072266e-01</leafValues></_>
        <_>
          <internalNodes>
            0 -1 133 -5.5540231987833977e-03</internalNodes>
          <leafValues>
            -8.5073161125183105e-01 8.3606675267219543e-02</leafValues></_>
        <_>
          <internalNodes>
            0 -1 130 -2.1762442775070667e-03</internalNodes>
          <leafValues>
            3.3318302035331726e-01 -2.2554077208042145e-01</leafValues></_>
        <_>
          <internalNodes>
            0 -1 25 6.4633034169673920e-02</internalNodes>
          <leafValues>
            1.2365779280662537e-01 -5.1927226781845093e-01</leafValues></_></weakClassifiers></_>
    <!-- stage 5 -->
    <_>
      <maxWeakCount>17</maxWeakCount>
      <stageThreshold>-8.1566947698593140e-01</stageThreshold>
      <weakClassifiers>
        <_>
          <internalNodes>
            0 -1 108 6.4322343096137047e-03</internalNodes>
          <leafValues>
            -2.1967212855815887e-01 5.7402598857879639e-01</leafValues></_>
        <_>
          <internalNodes>
            0 -1 35 6.5407939255237579e-03</internalNodes>
          <leafValues>
            2.0903043448925018e-01 -6.6154348850250244e-01</leafValues></_>
        <_>
          <internalNodes>
            0 -1 34 5.7113976217806339e-03</internalNodes>
          <leafValues>
            2.0292824506759644e-01 -5.0013875961303711e-01</leafValues></_>
        <_>
          <internalNodes>
            0 -1 43 1.2292202562093735e-02</internalNodes>
          <leafValues>
            -1.9916874170303345e-01 4.7079968452453613e-01</leafValues></_>
        <_>
          <internalNodes>
            0 -1 33 1.4793492853641510e-02</internalNodes>
          <leafValues>
            -2.0794218778610229e-01 3.7601247429847717e-01</leafValues></_>
        <_>
          <internalNodes>
            0 -1 176 -7.7822222374379635e-03</internalNodes>
          <leafValues>
            4.7100853919982910e-01 -1.6680550575256348e-01</leafValues></_>
        <_>
          <internalNodes>
            0 -1 118 -5.2810916677117348e-03</internalNodes>
          <leafValues>
            3.7591058015823364e-01 -2.1517696976661682e-01</leafValues></_>
        <_>
          <internalNodes>
            0 -1 135 -2.8773616999387741e-02</internalNodes>
          <leafValues>
            -7.9060155153274536e-01 1.3681463897228241e-01</leafValues></_>
        <_>
          <internalNodes>
            0 -1 179 4.0548695251345634e-03</internalNodes>
          <leafValues>
            -1.8900522589683533e-01 4.2539682984352112e-01</leafValues></_>
        <_>
          <internalNodes>
            0 -1 167 -3.6528331693261862e-03</internalNodes>
          <leafValues>
            -7.1719342470169067e-01 1.3713021576404572e-01</leafValues></_>
        <_>
          <internalNodes>
            0 -1 128 7.2718271985650063e-04</internalNodes>
          <leafValues>
            -3.5287871956825256e-01 2.0269417762756348e-01</leafValues></_>
        <_>
          <internalNodes>
            0 -1 144 1.5919778961688280e-03</internalNodes>
          <leafValues>
            -1.8908512592315674e-01 4.6141844987869263e-01</leafValues></_>
        <_>
          <internalNodes>
            0 -1 149 -1.6984768211841583e-02</internalNodes>
          <leafValues>
            -8.0496180057525635e-01 1.0479955375194550e-01</leafValues></_>
        <_>
          <internalNodes>
            0 -1 89 -1.6070596873760223e-02</internalNodes>
          <leafValues>
            -7.1608513593673706e-01 8.7253399193286896e-02</leafValues></_>
        <_>
          <internalNodes>
            0 -1 84 2.3328371345996857e-02</internalNodes>
          <leafValues>
            -2.2527945041656494e-01 3.2986465096473694e-01</leafValues></_>
        <_>
          <internalNodes>
            0 -1 169 -3.9699925109744072e-03</internalNodes>
          <leafValues>
            5.6550753116607666e-01 -1.5395453572273254e-01</leafValues></_>
        <_>
          <internalNodes>
            0 -1 132 1.8241915386170149e-03</internalNodes>
          <leafValues>
            1.4925613999366760e-01 -6.0440808534622192e-01</leafValues></_></weakClassifiers></_>
    <!-- stage 6 -->
    <_>
      <maxWeakCount>18</maxWeakCount>
      <stageThreshold>-7.1237236261367798e-01</stageThreshold>
      <weakClassifiers>
        <_>
          <internalNodes>
            0 -1 134 -2.4932506494224072e-03</internalNodes>
          <leafValues>
            5.1973485946655273e-01 -2.2935779392719269e-01</leafValues></_>
        <_>
          <internalNodes>
            0 -1 0 1.1930930614471436e-01</internalNodes>
          <leafValues>
            -1.6874836385250092e-01 5.3326040506362915e-01</leafValues></_>
        <_>
          <internalNodes>
            0 -1 78 -5.2614684682339430e-04</internalNodes>
          <leafValues>
            2.3873093724250793e-01 -3.2877850532531738e-01</leafValues></_>
        <_>
          <internalNodes>
            0 -1 127 3.3738664351403713e-03</internalNodes>
          <leafValues>
            1.3749012351036072e-01 -5.2167230844497681e-01</leafValues></_>
        <_>
          <internalNodes>
            0 -1 119 6.9647822529077530e-03</internalNodes>
          <leafValues>
            -1.5601983666419983e-01 4.4957268238067627e-01</leafValues></_>
        <_>
          <internalNodes>
            0 -1 101 -5.3737647831439972e-03</internalNodes>
          <leafValues>
            3.8303452730178833e-01 -2.1186755597591400e-01</leafValues></_>
        <_>
          <internalNodes>
            0 -1 9 1.0293997824192047e-01</internalNodes>
          <leafValues>
            7.9162389039993286e-02 -8.0412811040878296e-01</leafValues></_>
        <_>
          <internalNodes>
            0 -1 31 -2.4125529453158379e-02</internalNodes>
          <leafValues>
            -7.0906275510787964e-01 7.6179236173629761e-02</leafValues></_>
        <_>
          <internalNodes>
            0 -1 177 -7.3765302076935768e-03</internalNodes>
          <leafValues>
            5.0366204977035522e-01 -1.2329584360122681e-01</leafValues></_>
        <_>
          <internalNodes>
            0 -1 3 -3.7325563607737422e-04</internalNodes>
          <leafValues>
            2.6348501443862915e-01 -2.6089543104171753e-01</leafValues></_>
        <_>
          <internalNodes>
            0 -1 59 -1.0088200867176056e-01</internalNodes>
          <leafValues>
            -9.8179513216018677e-01 6.4529702067375183e-02</leafValues></_>
        <_>
          <internalNodes>
            0 -1 48 -1.6108502168208361e-03</internalNodes>
          <leafValues>
            1.8319095671176910e-01 -3.5150873661041260e-01</leafValues></_>
        <_>
          <internalNodes>
            0 -1 14 -5.7771936058998108e-02</internalNodes>
          <leafValues>
            6.0511064529418945e-01 -1.1293356865644455e-01</leafValues></_>
        <_>
          <internalNodes>
            0 -1 46 2.1850951015949249e-02</internalNodes>
          <leafValues>
            -1.8556298315525055e-01 4.5968475937843323e-01</leafValues></_>
        <_>
          <internalNodes>
            0 -1 5 5.8302804827690125e-02</internalNodes>
          <leafValues>
            -1.6565315425395966e-01 4.1146212816238403e-01</leafValues></_>
        <_>
          <internalNodes>
            0 -1 93 -1.1380589567124844e-02</internalNodes>
          <leafValues>
            3.8788336515426636e-01 -2.1438249945640564e-01</leafValues></_>
        <_>
          <internalNodes>
            0 -1 124 -6.8072322756052017e-03</internalNodes>
          <leafValues>
            3.7266969680786133e-01 -1.9617882370948792e-01</leafValues></_>
        <_>
          <internalNodes>
            0 -1 1 -5.2755773067474365e-02</internalNodes>
          <leafValues>
            6.3765871524810791e-01 -1.1200757324695587e-01</leafValues></_></weakClassifiers></_>
    <!-- stage 7 -->
    <_>
      <maxWeakCount>20</maxWeakCount>
      <stageThreshold>-7.3501360416412354e-01</stageThreshold>
      <weakClassifiers>
        <_>
          <internalNodes>
            0 -1 7 2.2776452824473381e-02</internalNodes>
          <leafValues>
            -6.1009428463876247e-03 6.0512614250183105e-01</leafValues></_>
        <_>
          <internalNodes>
            0 -1 164 2.6538278907537460e-03</internalNodes>
          <leafValues>
            1.9658379256725311e-01 -5.5933433771133423e-01</leafValues></_>
        <_>
          <internalNodes>
            0 -1 24 -9.0430960059165955e-02</internalNodes>
          <leafValues>
            4.5820122957229614e-01 -1.6873952746391296e-01</leafValues></_>
        <_>
          <internalNodes>
            0 -1 74 1.8175337463617325e-02</internalNodes>
          <leafValues>
            1.1048953980207443e-01 -6.7834562063217163e-01</leafValues></_>
        <_>
          <internalNodes>
            0 -1 80 1.8438637489452958e-03</internalNodes>
          <leafValues>
            -2.7605313062667847e-01 2.4904306232929230e-01</leafValues></_>
        <_>
          <internalNodes>
            0 -1 174 3.8639171980321407e-03</internalNodes>
          <leafValues>
            -2.9359734058380127e-01 2.3612637817859650e-01</leafValues></_>
        <_>
          <internalNodes>
            0 -1 40 2.5279857218265533e-03</internalNodes>
          <leafValues>
            1.5715993940830231e-01 -5.7163685560226440e-01</leafValues></_>
        <_>
          <internalNodes>
            0 -1 113 1.4969357289373875e-02</internalNodes>
          <leafValues>
            8.9214235544204712e-02 -6.4921790361404419e-01</leafValues></_>
        <_>
          <internalNodes>
            0 -1 152 1.0857813060283661e-02</internalNodes>
          <leafValues>
            -1.6512109339237213e-01 5.6056350469589233e-01</leafValues></_>
        <_>
          <internalNodes>
            0 -1 156 -5.2151931449770927e-03</internalNodes>
          <leafValues>
            5.0303047895431519e-01 -1.5987324714660645e-01</leafValues></_>
        <_>
          <internalNodes>
            0 -1 146 6.1147878877818584e-03</internalNodes>
          <leafValues>
            1.2130843847990036e-01 -8.1292456388473511e-01</leafValues></_>
        <_>
          <internalNodes>
            0 -1 110 -2.4909617379307747e-02</internalNodes>
          <leafValues>
            -7.8563898801803589e-01 6.4842239022254944e-02</leafValues></_>
        <_>
          <internalNodes>
            0 -1 139 2.7420043479651213e-03</internalNodes>
          <leafValues>
            1.0278323292732239e-01 -5.4349011182785034e-01</leafValues></_>
        <_>
          <internalNodes>
            0 -1 57 3.2055072486400604e-02</internalNodes>
          <leafValues>
            -1.9451050460338593e-01 3.1118127703666687e-01</leafValues></_>
        <_>
          <internalNodes>
            0 -1 148 1.5092058107256889e-02</internalNodes>
          <leafValues>
            -1.6271348297595978e-01 5.1379442214965820e-01</leafValues></_>
        <_>
          <internalNodes>
            0 -1 138 -3.3737528137862682e-03</internalNodes>
          <leafValues>
            -6.4584386348724365e-01 1.1194738000631332e-01</leafValues></_>
        <_>
          <internalNodes>
            0 -1 69 -6.4529061317443848e-02</internalNodes>
          <leafValues>
            4.2124128341674805e-01 -1.5718369185924530e-01</leafValues></_>
        <_>
          <internalNodes>
            0 -1 58 1.6391733288764954e-01</internalNodes>
          <leafValues>
            -1.8133310973644257e-01 4.0704515576362610e-01</leafValues></_>
        <_>
          <internalNodes>
            0 -1 44 -6.3984387088567019e-04</internalNodes>
          <leafValues>
            2.7089670300483704e-01 -2.8079184889793396e-01</leafValues></_>
        <_>
          <internalNodes>
            0 -1 63 1.3845222070813179e-02</internalNodes>
          <leafValues>
            1.2606884539127350e-01 -5.8609247207641602e-01</leafValues></_></weakClassifiers></_>
    <!-- stage 8 -->
    <_>
      <maxWeakCount>25</maxWeakCount>
      <stageThreshold>-8.1690531969070435e-01</stageThreshold>
      <weakClassifiers>
        <_>
          <internalNodes>
            0 -1 94 -1.2604180723428726e-02</internalNodes>
          <leafValues>
            5.9823578596115112e-01 4.4296788983047009e-03</leafValues></_>
        <_>
          <internalNodes>
            0 -1 87 -2.8362488374114037e-03</internalNodes>
          <leafValues>
            3.4307709336280823e-01 -2.6767700910568237e-01</leafValues></_>
        <_>
          <internalNodes>
            0 -1 145 4.4404827058315277e-02</internalNodes>
          <leafValues>
            -1.0840023308992386e-01 6.5939247608184814e-01</leafValues></_>
        <_>
          <internalNodes>
            0 -1 6 3.4199528396129608e-02</internalNodes>
          <leafValues>
            -1.5635022521018982e-01 5.0981599092483521e-01</leafValues></_>
        <_>
          <internalNodes>
            0 -1 111 -3.5457205958664417e-03</internalNodes>
          <leafValues>
            2.0138582587242126e-01 -3.4164938330650330e-01</leafValues></_>
        <_>
          <internalNodes>
            0 -1 129 -1.2926355004310608e-02</internalNodes>
          <leafValues>
            5.3101211786270142e-01 -1.1658911406993866e-01</leafValues></_>
        <_>
          <internalNodes>
            0 -1 38 1.4795561321079731e-02</internalNodes>
          <leafValues>
            -1.8215107917785645e-01 3.6027872562408447e-01</leafValues></_>
        <_>
          <internalNodes>
            0 -1 18 -4.4233174994587898e-03</internalNodes>
          <leafValues>
            3.1260633468627930e-01 -2.3217612504959106e-01</leafValues></_>
        <_>
          <internalNodes>
            0 -1 125 1.8932547420263290e-02</internalNodes>
          <leafValues>
            9.1619275510311127e-02 -7.9197752475738525e-01</leafValues></_>
        <_>
          <internalNodes>
            0 -1 157 2.9140305705368519e-03</internalNodes>
          <leafValues>
            -2.0132297277450562e-01 3.3870890736579895e-01</leafValues></_>
        <_>
          <internalNodes>
            0 -1 150 5.8315033093094826e-03</internalNodes>
          <leafValues>
            -1.1054880917072296e-01 5.6261926889419556e-01</leafValues></_>
        <_>
          <internalNodes>
            0 -1 50 1.6632664483040571e-03</internalNodes>
          <leafValues>
            9.4806745648384094e-02 -6.2592524290084839e-01</leafValues></_>
        <_>
          <internalNodes>
            0 -1 151 1.8312430474907160e-03</internalNodes>
          <leafValues>
            -2.3154310882091522e-01 2.8740721940994263e-01</leafValues></_>
        <_>
          <internalNodes>
            0 -1 13 3.4216627478599548e-02</internalNodes>
          <leafValues>
            -1.5128085017204285e-01 3.8979667425155640e-01</leafValues></_>
        <_>
          <internalNodes>
            0 -1 45 6.6466972231864929e-02</internalNodes>
          <leafValues>
            8.3058752119541168e-02 -8.7901669740676880e-01</leafValues></_>
        <_>
          <internalNodes>
            0 -1 86 1.5143863856792450e-03</internalNodes>
          <leafValues>
            -1.5406964719295502e-01 4.0175268054008484e-01</leafValues></_>
        <_>
          <internalNodes>
            0 -1 98 2.4343077093362808e-02</internalNodes>
          <leafValues>
            -1.0167970508337021e-01 5.9349936246871948e-01</leafValues></_>
        <_>
          <internalNodes>
            0 -1 83 -3.7727579474449158e-03</internalNodes>
          <leafValues>
            4.1511312127113342e-01 -1.7097827792167664e-01</leafValues></_>
        <_>
          <internalNodes>
            0 -1 155 3.1077531166374683e-03</internalNodes>
          <leafValues>
            1.0883373767137527e-01 -6.2374615669250488e-01</leafValues></_>
        <_>
          <internalNodes>
            0 -1 120 -8.8011045008897781e-03</internalNodes>
          <leafValues>
            3.7708005309104919e-01 -1.5584737062454224e-01</leafValues></_>
        <_>
          <internalNodes>
            0 -1 132 3.3431183546781540e-03</internalNodes>
          <leafValues>
            9.4951294362545013e-02 -7.3110556602478027e-01</leafValues></_>
        <_>
          <internalNodes>
            0 -1 170 -3.4237527288496494e-03</internalNodes>
          <leafValues>
            3.7415304780006409e-01 -1.6503790020942688e-01</leafValues></_>
        <_>
          <internalNodes>
            0 -1 173 8.9386117178946733e-04</internalNodes>
          <leafValues>
            -2.1269002556800842e-01 2.8333705663681030e-01</leafValues></_>
        <_>
          <internalNodes>
            0 -1 76 3.8017041515558958e-04</internalNodes>
          <leafValues>
            -2.3321196436882019e-01 2.4365110695362091e-01</leafValues></_>
        <_>
          <internalNodes>
            0 -1 77 -8.1578764365985990e-04</internalNodes>
          <leafValues>
            1.5319389104843140e-01 -4.1070240736007690e-01</leafValues></_></weakClassifiers></_>
    <!-- stage 9 -->
    <_>
      <maxWeakCount>26</maxWeakCount>
      <stageThreshold>-6.9837945699691772e-01</stageThreshold>
      <weakClassifiers>
        <_>
          <internalNodes>
            0 -1 51 4.9179820343852043e-03</internalNodes>
          <leafValues>
            4.7867834568023682e-01 -2.5691699981689453e-01</leafValues></_>
        <_>
          <internalNodes>
            0 -1 70 7.4907094240188599e-03</internalNodes>
          <leafValues>
            -1.8196114897727966e-01 4.3242546916007996e-01</leafValues></_>
        <_>
          <internalNodes>
            0 -1 29 1.7883291468024254e-02</internalNodes>
          <leafValues>
            -2.1492514014244080e-01 3.7029215693473816e-01</leafValues></_>
        <_>
          <internalNodes>
            0 -1 12 3.4143231809139252e-02</internalNodes>
          <leafValues>
            -2.1837323904037476e-01 4.1508698463439941e-01</leafValues></_>
        <_>
          <internalNodes>
            0 -1 52 -2.6854025200009346e-02</internalNodes>
          <leafValues>
            -7.9074954986572266e-01 1.3920587301254272e-01</leafValues></_>
        <_>
          <internalNodes>
            0 -1 92 9.4279441982507706e-03</internalNodes>
          <leafValues>
            -1.7245838046073914e-01 3.8615074753761292e-01</leafValues></_>
        <_>
          <internalNodes>
            0 -1 114 -3.6993301473557949e-03</internalNodes>
          <leafValues>
            4.0750017762184143e-01 -1.7980808019638062e-01</leafValues></_>
        <_>
          <internalNodes>
            0 -1 11 -4.5248065143823624e-02</internalNodes>
          <leafValues>
            4.4084388017654419e-01 -1.5433342754840851e-01</leafValues></_>
        <_>
          <internalNodes>
            0 -1 116 2.1713939495384693e-03</internalNodes>
          <leafValues>
            9.4366095960140228e-02 -7.1296238899230957e-01</leafValues></_>
        <_>
          <internalNodes>
            0 -1 19 -8.3434148109517992e-05</internalNodes>
          <leafValues>
            2.3326936364173889e-01 -2.6469209790229797e-01</leafValues></_>
        <_>
          <internalNodes>
            0 -1 55 1.9862925633788109e-02</internalNodes>
          <leafValues>
            7.9213321208953857e-02 -7.6876413822174072e-01</leafValues></_>
        <_>
          <internalNodes>
            0 -1 10 4.2867098003625870e-02</internalNodes>
          <leafValues>
            -1.7460237443447113e-01 3.5744342207908630e-01</leafValues></_>
        <_>
          <internalNodes>
            0 -1 88 1.5208860859274864e-03</internalNodes>
          <leafValues>
            -1.4281435310840607e-01 3.9138069748878479e-01</leafValues></_>
        <_>
          <internalNodes>
            0 -1 42 1.4679022133350372e-02</internalNodes>
          <leafValues>
            1.3327293097972870e-01 -4.6031332015991211e-01</leafValues></_>
        <_>
          <internalNodes>
            0 -1 73 -2.5244286283850670e-02</internalNodes>
          <leafValues>
            -6.2147462368011475e-01 8.1479646265506744e-02</leafValues></_>
        <_>
          <internalNodes>
            0 -1 54 1.3480207882821560e-02</internalNodes>
          <leafValues>
            7.1548230946063995e-02 -7.5208437442779541e-01</leafValues></_>
        <_>
          <internalNodes>
            0 -1 136 -6.6267082002013922e-04</internalNodes>
          <leafValues>
            2.4508924782276154e-01 -2.3341950774192810e-01</leafValues></_>
        <_>
          <internalNodes>
            0 -1 62 8.9229047298431396e-03</internalNodes>
          <leafValues>
            6.1850808560848236e-02 -8.7667757272720337e-01</leafValues></_>
        <_>
          <internalNodes>
            0 -1 112 1.7647910863161087e-02</internalNodes>
          <leafValues>
            5.4853163659572601e-02 -8.3898800611495972e-01</leafValues></_>
        <_>
          <internalNodes>
            0 -1 65 2.0532470196485519e-02</internalNodes>
          <leafValues>
            9.0815246105194092e-02 -5.5197209119796753e-01</leafValues></_>
        <_>
          <internalNodes>
            0 -1 153 5.7132728397846222e-03</internalNodes>
          <leafValues>
            -1.5395635366439819e-01 3.6966794729232788e-01</leafValues></_>
        <_>
          <internalNodes>
            0 -1 140 -5.2326277364045382e-04</internalNodes>
          <leafValues>
            2.0486678183078766e-01 -3.0204713344573975e-01</leafValues></_>
        <_>
          <internalNodes>
            0 -1 27 -7.5377579778432846e-03</internalNodes>
          <leafValues>
            5.0242137908935547e-01 -1.2571589648723602e-01</leafValues></_>
        <_>
          <internalNodes>
            0 -1 15 -7.3759838938713074e-02</internalNodes>
          <leafValues>
            4.7145339846611023e-01 -1.1771064996719360e-01</leafValues></_>
        <_>
          <internalNodes>
            0 -1 175 -7.6064432505518198e-04</internalNodes>
          <leafValues>
            -4.5078966021537781e-01 1.6948257386684418e-01</leafValues></_>
        <_>
          <internalNodes>
            0 -1 76 8.4277137648314238e-04</internalNodes>
          <leafValues>
            -2.3857374489307404e-01 2.4989163875579834e-01</leafValues></_></weakClassifiers></_>
    <!-- stage 10 -->
    <_>
      <maxWeakCount>23</maxWeakCount>
      <stageThreshold>-8.2011270523071289e-01</stageThreshold>
      <weakClassifiers>
        <_>
          <internalNodes>
            0 -1 4 1.5774011611938477e-02</internalNodes>
          <leafValues>
            -7.0948466658592224e-02 5.2254456281661987e-01</leafValues></_>
        <_>
          <internalNodes>
            0 -1 141 4.9976222217082977e-03</internalNodes>
          <leafValues>
            -1.8368266522884369e-01 3.8611194491386414e-01</leafValues></_>
        <_>
          <internalNodes>
            0 -1 168 -3.8696914911270142e-02</internalNodes>
          <leafValues>
            4.9398306012153625e-01 -1.4459551870822906e-01</leafValues></_>
        <_>
          <internalNodes>
            0 -1 147 4.4245347380638123e-03</internalNodes>
          <leafValues>
            -1.9512067735195160e-01 3.5993525385856628e-01</leafValues></_>
        <_>
          <internalNodes>
            0 -1 32 2.5781574659049511e-03</internalNodes>
          <leafValues>
            9.9038809537887573e-02 -6.2116593122482300e-01</leafValues></_>
        <_>
          <internalNodes>
            0 -1 16 -8.4810592234134674e-02</internalNodes>
          <leafValues>
            3.9629325270652771e-01 -1.7296603322029114e-01</leafValues></_>
        <_>
          <internalNodes>
            0 -1 137 1.6634631901979446e-02</internalNodes>
          <leafValues>
            -1.8661959469318390e-01 3.3719682693481445e-01</leafValues></_>
        <_>
          <internalNodes>
            0 -1 122 2.4997314903885126e-03</internalNodes>
          <leafValues>
            8.2770027220249176e-02 -6.6839623451232910e-01</leafValues></_>
        <_>
          <internalNodes>
            0 -1 165 -2.8562063816934824e-03</internalNodes>
          <leafValues>
            -7.3625630140304565e-01 6.3516482710838318e-02</leafValues></_>
        <_>
          <internalNodes>
            0 -1 85 -9.6835792064666748e-02</internalNodes>
          <leafValues>
            -7.8616613149642944e-01 4.6568464487791061e-02</leafValues></_>
        <_>
          <internalNodes>
            0 -1 60 6.3251405954360962e-03</internalNodes>
          <leafValues>
            -1.9653362035751343e-01 2.6555651426315308e-01</leafValues></_>
        <_>
          <internalNodes>
            0 -1 71 3.9661219343543053e-03</internalNodes>
          <leafValues>
            -1.9336244463920593e-01 4.1474539041519165e-01</leafValues></_>
        <_>
          <internalNodes>
            0 -1 22 3.5259505966678262e-04</internalNodes>
          <leafValues>
            -2.3439732193946838e-01 2.2593104839324951e-01</leafValues></_>
        <_>
          <internalNodes>
            0 -1 75 5.5895961122587323e-04</internalNodes>
          <leafValues>
            -1.8595822155475616e-01 2.7152234315872192e-01</leafValues></_>
        <_>
          <internalNodes>
            0 -1 28 1.4788344502449036e-02</internalNodes>
          <leafValues>
            7.5799465179443359e-02 -6.8818444013595581e-01</leafValues></_>
        <_>
          <internalNodes>
            0 -1 117 -2.3490977473556995e-03</internalNodes>
          <leafValues>
            3.0528241395950317e-01 -1.8978843092918396e-01</leafValues></_>
        <_>
          <internalNodes>
            0 -1 97 5.5139735341072083e-03</internalNodes>
          <leafValues>
            -1.5032611787319183e-01 3.9460679888725281e-01</leafValues></_>
        <_>
          <internalNodes>
            0 -1 61 -5.6007187813520432e-03</internalNodes>
          <leafValues>
            -6.5275955200195312e-01 1.0378700494766235e-01</leafValues></_>
        <_>
          <internalNodes>
            0 -1 159 -1.0012701153755188e-02</internalNodes>
          <leafValues>
            -6.3093322515487671e-01 6.7407473921775818e-02</leafValues></_>
        <_>
          <internalNodes>
            0 -1 166 4.3603670783340931e-03</internalNodes>
          <leafValues>
            6.0233060270547867e-02 -7.6062405109405518e-01</leafValues></_>
        <_>
          <internalNodes>
            0 -1 123 -2.6895930059254169e-03</internalNodes>
          <leafValues>
            3.3179947733879089e-01 -1.5676048398017883e-01</leafValues></_>
        <_>
          <internalNodes>
            0 -1 41 -1.9068513065576553e-02</internalNodes>
          <leafValues>
            -9.7235631942749023e-01 5.3007099777460098e-02</leafValues></_>
        <_>
          <internalNodes>
            0 -1 121 -1.4619443099945784e-03</internalNodes>
          <leafValues>
            -6.9735831022262573e-01 5.3152453154325485e-02</leafValues></_></weakClassifiers></_></stages>
  <features>
    <_>
      <rects>
        <_>
          0 3 8 12 -1.</_>
        <_>
          4 3 4 12 2.</_></rects>
      <tilted>0</tilted></_>
    <_>
      <rects>
        <_>
          0 3 18 2 -1.</_>
        <_>
          6 3 6 2 3.</_></rects>
      <tilted>0</tilted></_>
    <_>
      <rects>
        <_>
          0 4 8 14 -1.</_>
        <_>
          4 4 4 14 2.</_></rects>
      <tilted>0</tilted></_>
    <_>
      <rects>
        <_>
          0 5 2 8 -1.</_>
        <_>
          0 5 1 4 2.</_>
        <_>
          1 9 1 4 2.</_></rects>
      <tilted>0</tilted></_>
    <_>
      <rects>
        <_>
          0 6 18 2 -1.</_>
        <_>
          6 6 6 2 3.</_></rects>
      <tilted>0</tilted></_>
    <_>
      <rects>
        <_>
          0 7 9 7 -1.</_>
        <_>
          3 7 3 7 3.</_></rects>
      <tilted>0</tilted></_>
    <_>
      <rects>
        <_>
          0 8 4 6 -1.</_>
        <_>
          2 8 2 6 2.</_></rects>
      <tilted>0</tilted></_>
    <_>
      <rects>
        <_>
          1 10 12 2 -1.</_>
        <_>
          5 10 4 2 3.</_></rects>
      <tilted>0</tilted></_>
    <_>
      <rects>
        <_>
          2 1 8 10 -1.</_>
        <_>
          2 1 4 5 2.</_>
        <_>
          6 6 4 5 2.</_></rects>
      <tilted>0</tilted></_>
    <_>
      <rects>
        <_>
          2 8 9 8 -1.</_>
        <_>
          5 8 3 8 3.</_></rects>
      <tilted>0</tilted></_>
    <_>
      <rects>
        <_>
          2 10 6 7 -1.</_>
        <_>
          5 10 3 7 2.</_></rects>
      <tilted>0</tilted></_>
    <_>
      <rects>
        <_>
          2 10 8 10 -1.</_>
        <_>
          2 10 4 5 2.</_>
        <_>
          6 15 4 5 2.</_></rects>
      <tilted>0</tilted></_>
    <_>
      <rects>
        <_>
          2 12 10 6 -1.</_>
        <_>
          2 12 5 3 2.</_>
        <_>
          7 15 5 3 2.</_></rects>
      <tilted>0</tilted></_>
    <_>
      <rects>
        <_>
          2 12 12 3 -1.</_>
        <_>
          8 12 6 3 2.</_></rects>
      <tilted>0</tilted></_>
    <_>
      <rects>
        <_>
          2 13 18 2 -1.</_>
        <_>
          8 13 6 2 3.</_></rects>
      <tilted>0</tilted></_>
    <_>
      <rects>
        <_>
          3 0 12 8 -1.</_>
        <_>
          3 4 12 4 2.</_></rects>
      <tilted>0</tilted></_>
    <_>
      <rects>
        <_>
          3 7 15 7 -1.</_>
        <_>
          8 7 5 7 3.</_></rects>
      <tilted>0</tilted></_>
    <_>
      <rects>
        <_>
          3 7 16 5 -1.</_>
        <_>
          11 7 8 5 2.</_></rects>
      <tilted>0</tilted></_>
    <_>
      <rects>
        <_>
          3 8 4 6 -1.</_>
        <_>
          5 8 2 6 2.</_></rects>
      <tilted>0</tilted></_>
    <_>
      <rects>
        <_>
          3 10 2 2 -1.</_>
        <_>
          4 10 1 2 2.</_></rects>
      <tilted>0</tilted></_>
    <_>
      <rects>
        <_>
          3 10 6 1 -1.</_>
        <_>
          6 10 3 1 2.</_></rects>
      <tilted>0</tilted></_>
    <_>
      <rects>
        <_>
          3 12 8 6 -1.</_>
        <_>
          3 12 4 3 2.</_>
        <_>
          7 15 4 3 2.</_></rects>
      <tilted>0</tilted></_>
    <_>
      <rects>
        <_>
          3 13 1 6 -1.</_>
        <_>
          3 15 1 2 3.</_></rects>
      <tilted>0</tilted></_>
    <_>
      <rects>
        <_>
          3 14 9 6 -1.</_>
        <_>
          3 16 9 2 3.</_></rects>
      <tilted>0</tilted></_>
    <_>
      <rects>
        <_>
          3 14 15 6 -1.</_>
        <_>
          3 17 15 3 2.</_></rects>
      <tilted>0</tilted></_>
    <_>
      <rects>
        <_>
          4 1 14 17 -1.</_>
        <_>
          11 1 7 17 2.</_></rects>
      <tilted>0</tilted></_>
    <_>
      <rects>
        <_>
          4 3 8 6 -1.</_>
        <_>
          4 3 4 3 2.</_>
        <_>
          8 6 4 3 2.</_></rects>
      <tilted>0</tilted></_>
    <_>
      <rects>
        <_>
          4 4 8 2 -1.</_>
        <_>
          4 4 4 1 2.</_>
        <_>
          8 5 4 1 2.</_></rects>
      <tilted>0</tilted></_>
    <_>
      <rects>
        <_>
          4 6 6 3 -1.</_>
        <_>
          6 6 2 3 3.</_></rects>
      <tilted>0</tilted></_>
    <_>
      <rects>
        <_>
          4 6 8 3 -1.</_>
        <_>
          8 6 4 3 2.</_></rects>
      <tilted>0</tilted></_>
    <_>
      <rects>
        <_>
          4 6 8 6 -1.</_>
        <_>
          4 6 4 3 2.</_>
        <_>
          8 9 4 3 2.</_></rects>
      <tilted>0</tilted></_>
    <_>
      <rects>
        <_>
          4 6 5 8 -1.</_>
        <_>
          4 10 5 4 2.</_></rects>
      <tilted>0</tilted></_>
    <_>
      <rects>
        <_>
          4 7 2 3 -1.</_>
        <_>
          4 8 2 1 3.</_></rects>
      <tilted>0</tilted></_>
    <_>
      <rects>
        <_>
          4 7 4 5 -1.</_>
        <_>
          6 7 2 5 2.</_></rects>
      <tilted>0</tilted></_>
    <_>
      <rects>
        <_>
          4 7 12 6 -1.</_>
        <_>
          4 7 6 3 2.</_>
        <_>
          10 10 6 3 2.</_></rects>
      <tilted>0</tilted></_>
    <_>
      <rects>
        <_>
          4 8 2 6 -1.</_>
        <_>
          4 11 2 3 2.</_></rects>
      <tilted>0</tilted></_>
    <_>
      <rects>
        <_>
          4 9 2 3 -1.</_>
        <_>
          4 10 2 1 3.</_></rects>
      <tilted>0</tilted></_>
    <_>
      <rects>
        <_>
          4 9 4 3 -1.</_>
        <_>
          6 9 2 3 2.</_></rects>
      <tilted>0</tilted></_>
    <_>
      <rects>
        <_>
          4 9 4 4 -1.</_>
        <_>
          6 9 2 4 2.</_></rects>
      <tilted>0</tilted></_>
    <_>
      <rects>
        <_>
          4 9 6 5 -1.</_>
        <_>
          6 9 2 5 3.</_></rects>
      <tilted>0</tilted></_>
    <_>
      <rects>
        <_>
          4 11 2 3 -1.</_>
        <_>
          4 12 2 1 3.</_></rects>
      <tilted>0</tilted></_>
    <_>
      <rects>
        <_>
          4 11 2 6 -1.</_>
        <_>
          4 13 2 2 3.</_></rects>
      <tilted>0</tilted></_>
    <_>
      <rects>
        <_>
          5 0 15 2 -1.</_>
        <_>
          10 0 5 2 3.</_></rects>
      <tilted>0</tilted></_>
    <_>
      <rects>
        <_>
          5 2 8 2 -1.</_>
        <_>
          5 3 8 1 2.</_></rects>
      <tilted>0</tilted></_>
    <_>
      <rects>
        <_>
          5 5 6 2 -1.</_>
        <_>
          7 5 2 2 3.</_></rects>
      <tilted>0</tilted></_>
    <_>
      <rects>
        <_>
          5 5 6 12 -1.</_>
        <_>
          7 5 2 12 3.</_></rects>
      <tilted>0</tilted></_>
    <_>
      <rects>
        <_>
          5 6 4 10 -1.</_>
        <_>
          7 6 2 10 2.</_></rects>
      <tilted>0</tilted></_>
    <_>
      <rects>
        <_>
          5 6 12 6 -1.</_>
        <_>
          11 6 6 6 2.</_></rects>
      <tilted>0</tilted></_>
    <_>
      <rects>
        <_>
          5 6 14 1 -1.</_>
        <_>
          12 6 7 1 2.</_></rects>
      <tilted>0</tilted></_>
    <_>
      <rects>
        <_>
          5 7 6 6 -1.</_>
        <_>
          5 10 6 3 2.</_></rects>
      <tilted>0</tilted></_>
    <_>
      <rects>
        <_>
          5 8 1 3 -1.</_>
        <_>
          5 9 1 1 3.</_></rects>
      <tilted>0</tilted></_>
    <_>
      <rects>
        <_>
          5 8 2 8 -1.</_>
        <_>
          5 12 2 4 2.</_></rects>
      <tilted>0</tilted></_>
    <_>
      <rects>
        <_>
          5 8 6 6 -1.</_>
        <_>
          5 11 6 3 2.</_></rects>
      <tilted>0</tilted></_>
    <_>
      <rects>
        <_>
          5 8 12 6 -1.</_>
        <_>
          11 8 6 6 2.</_></rects>
      <tilted>0</tilted></_>
    <_>
      <rects>
        <_>
          5 10 12 2 -1.</_>
        <_>
          9 10 4 2 3.</_></rects>
      <tilted>0</tilted></_>
    <_>
      <rects>
        <_>
          5 13 6 3 -1.</_>
        <_>
          7 13 2 3 3.</_></rects>
      <tilted>0</tilted></_>
    <_>
      <rects>
        <_>
          5 13 12 2 -1.</_>
        <_>
          9 13 4 2 3.</_></rects>
      <tilted>0</tilted></_>
    <_>
      <rects>
        <_>
          5 13 12 3 -1.</_>
        <_>
          9 13 4 3 3.</_></rects>
      <tilted>0</tilted></_>
    <_>
      <rects>
        <_>
          6 0 12 18 -1.</_>
        <_>
          6 6 12 6 3.</_></rects>
      <tilted>0</tilted></_>
    <_>
      <rects>
        <_>
          6 3 10 11 -1.</_>
        <_>
          11 3 5 11 2.</_></rects>
      <tilted>0</tilted></_>
    <_>
      <rects>
        <_>
          6 4 8 4 -1.</_>
        <_>
          6 4 4 2 2.</_>
        <_>
          10 6 4 2 2.</_></rects>
      <tilted>0</tilted></_>
    <_>
      <rects>
        <_>
          6 5 3 3 -1.</_>
        <_>
          7 5 1 3 3.</_></rects>
      <tilted>0</tilted></_>
    <_>
      <rects>
        <_>
          6 5 3 4 -1.</_>
        <_>
          7 5 1 4 3.</_></rects>
      <tilted>0</tilted></_>
    <_>
      <rects>
        <_>
          6 6 6 5 -1.</_>
        <_>
          9 6 3 5 2.</_></rects>
      <tilted>0</tilted></_>
    <_>
      <rects>
        <_>
          6 8 5 6 -1.</_>
        <_>
          6 11 5 3 2.</_></rects>
      <tilted>0</tilted></_>
    <_>
      <rects>
        <_>
          6 8 10 6 -1.</_>
        <_>
          6 8 5 3 2.</_>
        <_>
          11 11 5 3 2.</_></rects>
      <tilted>0</tilted></_>
    <_>
      <rects>
        <_>
          6 8 6 8 -1.</_>
        <_>
          6 12 6 4 2.</_></rects>
      <tilted>0</tilted></_>
    <_>
      <rects>
        <_>
          6 10 9 2 -1.</_>
        <_>
          9 10 3 2 3.</_></rects>
      <tilted>0</tilted></_>
    <_>
      <rects>
        <_>
          6 11 6 4 -1.</_>
        <_>
          6 11 3 2 2.</_>
        <_>
          9 13 3 2 2.</_></rects>
      <tilted>0</tilted></_>
    <_>
      <rects>
        <_>
          7 0 13 8 -1.</_>
        <_>
          7 4 13 4 2.</_></rects>
      <tilted>0</tilted></_>
    <_>
      <rects>
        <_>
          7 2 6 2 -1.</_>
        <_>
          7 3 6 1 2.</_></rects>
      <tilted>0</tilted></_>
    <_>
      <rects>
        <_>
          7 3 6 1 -1.</_>
        <_>
          10 3 3 1 2.</_></rects>
      <tilted>0</tilted></_>
    <_>
      <rects>
        <_>
          7 5 9 7 -1.</_>
        <_>
          10 5 3 7 3.</_></rects>
      <tilted>0</tilted></_>
    <_>
      <rects>
        <_>
          7 6 6 8 -1.</_>
        <_>
          7 6 3 4 2.</_>
        <_>
          10 10 3 4 2.</_></rects>
      <tilted>0</tilted></_>
    <_>
      <rects>
        <_>
          7 6 4 8 -1.</_>
        <_>
          7 10 4 4 2.</_></rects>
      <tilted>0</tilted></_>
    <_>
      <rects>
        <_>
          7 8 1 3 -1.</_>
        <_>
          7 9 1 1 3.</_></rects>
      <tilted>0</tilted></_>
    <_>
      <rects>
        <_>
          7 9 1 3 -1.</_>
        <_>
          7 10 1 1 3.</_></rects>
      <tilted>0</tilted></_>
    <_>
      <rects>
        <_>
          7 9 6 6 -1.</_>
        <_>
          9 9 2 6 3.</_></rects>
      <tilted>0</tilted></_>
    <_>
      <rects>
        <_>
          7 10 2 1 -1.</_>
        <_>
          8 10 1 1 2.</_></rects>
      <tilted>0</tilted></_>
    <_>
      <rects>
        <_>
          7 11 6 1 -1.</_>
        <_>
          9 11 2 1 3.</_></rects>
      <tilted>0</tilted></_>
    <_>
      <rects>
        <_>
          7 12 4 2 -1.</_>
        <_>
          7 12 2 1 2.</_>
        <_>
          9 13 2 1 2.</_></rects>
      <tilted>0</tilted></_>
    <_>
      <rects>
        <_>
          8 0 5 8 -1.</_>
        <_>
          8 4 5 4 2.</_></rects>
      <tilted>0</tilted></_>
    <_>
      <rects>
        <_>
          8 2 5 6 -1.</_>
        <_>
          8 4 5 2 3.</_></rects>
      <tilted>0</tilted></_>
    <_>
      <rects>
        <_>
          8 3 6 1 -1.</_>
        <_>
          10 3 2 1 3.</_></rects>
      <tilted>0</tilted></_>
    <_>
      <rects>
        <_>
          8 4 8 6 -1.</_>
        <_>
          8 6 8 2 3.</_></rects>
      <tilted>0</tilted></_>
    <_>
      <rects>
        <_>
          8 6 10 9 -1.</_>
        <_>
          8 9 10 3 3.</_></rects>
      <tilted>0</tilted></_>
    <_>
      <rects>
        <_>
          8 7 2 2 -1.</_>
        <_>
          8 8 2 1 2.</_></rects>
      <tilted>0</tilted></_>
    <_>
      <rects>
        <_>
          8 7 6 2 -1.</_>
        <_>
          8 8 6 1 2.</_></rects>
      <tilted>0</tilted></_>
    <_>
      <rects>
        <_>
          8 8 1 3 -1.</_>
        <_>
          8 9 1 1 3.</_></rects>
      <tilted>0</tilted></_>
    <_>
      <rects>
        <_>
          8 11 6 4 -1.</_>
        <_>
          11 11 3 4 2.</_></rects>
      <tilted>0</tilted></_>
    <_>
      <rects>
        <_>
          8 11 8 1 -1.</_>
        <_>
          12 11 4 1 2.</_></rects>
      <tilted>0</tilted></_>
    <_>
      <rects>
        <_>
          8 12 5 4 -1.</_>
        <_>
          8 14 5 2 2.</_></rects>
      <tilted>0</tilted></_>
    <_>
      <rects>
        <_>
          8 13 4 3 -1.</_>
        <_>
          8 14 4 1 3.</_></rects>
      <tilted>0</tilted></_>
    <_>
      <rects>
        <_>
          8 13 4 4 -1.</_>
        <_>
          8 15 4 2 2.</_></rects>
      <tilted>0</tilted></_>
    <_>
      <rects>
        <_>
          8 13 8 5 -1.</_>
        <_>
          12 13 4 5 2.</_></rects>
      <tilted>0</tilted></_>
    <_>
      <rects>
        <_>
          8 14 6 2 -1.</_>
        <_>
          8 15 6 1 2.</_></rects>
      <tilted>0</tilted></_>
    <_>
      <rects>
        <_>
          8 14 6 6 -1.</_>
        <_>
          8 17 6 3 2.</_></rects>
      <tilted>0</tilted></_>
    <_>
      <rects>
        <_>
          8 15 8 2 -1.</_>
        <_>
          8 15 4 1 2.</_>
        <_>
          12 16 4 1 2.</_></rects>
      <tilted>0</tilted></_>
    <_>
      <rects>
        <_>
          9 1 3 6 -1.</_>
        <_>
          9 3 3 2 3.</_></rects>
      <tilted>0</tilted></_>
    <_>
      <rects>
        <_>
          9 1 4 6 -1.</_>
        <_>
          9 4 4 3 2.</_></rects>
      <tilted>0</tilted></_>
    <_>
      <rects>
        <_>
          9 1 4 18 -1.</_>
        <_>
          9 10 4 9 2.</_></rects>
      <tilted>0</tilted></_>
    <_>
      <rects>
        <_>
          9 2 5 3 -1.</_>
        <_>
          9 3 5 1 3.</_></rects>
      <tilted>0</tilted></_>
    <_>
      <rects>
        <_>
          9 4 3 3 -1.</_>
        <_>
          9 5 3 1 3.</_></rects>
      <tilted>0</tilted></_>
    <_>
      <rects>
        <_>
          9 4 4 3 -1.</_>
        <_>
          9 5 4 1 3.</_></rects>
      <tilted>0</tilted></_>
    <_>
      <rects>
        <_>
          9 5 3 3 -1.</_>
        <_>
          9 6 3 1 3.</_></rects>
      <tilted>0</tilted></_>
    <_>
      <rects>
        <_>
          9 6 3 1 -1.</_>
        <_>
          10 6 1 1 3.</_></rects>
      <tilted>0</tilted></_>
    <_>
      <rects>
        <_>
          9 6 3 6 -1.</_>
        <_>
          9 9 3 3 2.</_></rects>
      <tilted>0</tilted></_>
    <_>
      <rects>
        <_>
          9 6 3 9 -1.</_>
        <_>
          9 9 3 3 3.</_></rects>
      <tilted>0</tilted></_>
    <_>
      <rects>
        <_>
          9 6 8 6 -1.</_>
        <_>
          9 6 4 3 2.</_>
        <_>
          13 9 4 3 2.</_></rects>
      <tilted>0</tilted></_>
    <_>
      <rects>
        <_>
          9 7 4 8 -1.</_>
        <_>
          11 7 2 8 2.</_></rects>
      <tilted>0</tilted></_>
    <_>
      <rects>
        <_>
          9 7 6 7 -1.</_>
        <_>
          12 7 3 7 2.</_></rects>
      <tilted>0</tilted></_>
    <_>
      <rects>
        <_>
          9 9 3 6 -1.</_>
        <_>
          9 11 3 2 3.</_></rects>
      <tilted>0</tilted></_>
    <_>
      <rects>
        <_>
          9 9 8 2 -1.</_>
        <_>
          13 9 4 2 2.</_></rects>
      <tilted>0</tilted></_>
    <_>
      <rects>
        <_>
          9 11 8 2 -1.</_>
        <_>
          13 11 4 2 2.</_></rects>
      <tilted>0</tilted></_>
    <_>
      <rects>
        <_>
          9 13 3 3 -1.</_>
        <_>
          9 14 3 1 3.</_></rects>
      <tilted>0</tilted></_>
    <_>
      <rects>
        <_>
          9 14 5 3 -1.</_>
        <_>
          9 15 5 1 3.</_></rects>
      <tilted>0</tilted></_>
    <_>
      <rects>
        <_>
          9 15 3 1 -1.</_>
        <_>
          10 15 1 1 3.</_></rects>
      <tilted>0</tilted></_>
    <_>
      <rects>
        <_>
          9 15 8 2 -1.</_>
        <_>
          9 15 4 1 2.</_>
        <_>
          13 16 4 1 2.</_></rects>
      <tilted>0</tilted></_>
    <_>
      <rects>
        <_>
          10 0 3 4 -1.</_>
        <_>
          10 2 3 2 2.</_></rects>
      <tilted>0</tilted></_>
    <_>
      <rects>
        <_>
          10 2 3 3 -1.</_>
        <_>
          10 3 3 1 3.</_></rects>
      <tilted>0</tilted></_>
    <_>
      <rects>
        <_>
          10 3 6 3 -1.</_>
        <_>
          10 4 6 1 3.</_></rects>
      <tilted>0</tilted></_>
    <_>
      <rects>
        <_>
          10 5 2 1 -1.</_>
        <_>
          11 5 1 1 2.</_></rects>
      <tilted>0</tilted></_>
    <_>
      <rects>
        <_>
          10 6 3 1 -1.</_>
        <_>
          11 6 1 1 3.</_></rects>
      <tilted>0</tilted></_>
    <_>
      <rects>
        <_>
          10 8 3 2 -1.</_>
        <_>
          11 8 1 2 3.</_></rects>
      <tilted>0</tilted></_>
    <_>
      <rects>
        <_>
          10 8 1 9 -1.</_>
        <_>
          10 11 1 3 3.</_></rects>
      <tilted>0</tilted></_>
    <_>
      <rects>
        <_>
          10 8 6 4 -1.</_>
        <_>
          13 8 3 4 2.</_></rects>
      <tilted>0</tilted></_>
    <_>
      <rects>
        <_>
          10 10 6 1 -1.</_>
        <_>
          12 10 2 1 3.</_></rects>
      <tilted>0</tilted></_>
    <_>
      <rects>
        <_>
          10 10 9 2 -1.</_>
        <_>
          10 11 9 1 2.</_></rects>
      <tilted>0</tilted></_>
    <_>
      <rects>
        <_>
          10 12 2 2 -1.</_>
        <_>
          10 13 2 1 2.</_></rects>
      <tilted>0</tilted></_>
    <_>
      <rects>
        <_>
          10 12 3 6 -1.</_>
        <_>
          10 14 3 2 3.</_></rects>
      <tilted>0</tilted></_>
    <_>
      <rects>
        <_>
          11 0 3 3 -1.</_>
        <_>
          11 1 3 1 3.</_></rects>
      <tilted>0</tilted></_>
    <_>
      <rects>
        <_>
          11 5 2 2 -1.</_>
        <_>
          12 5 1 2 2.</_></rects>
      <tilted>0</tilted></_>
    <_>
      <rects>
        <_>
          11 5 3 2 -1.</_>
        <_>
          12 5 1 2 3.</_></rects>
      <tilted>0</tilted></_>
    <_>
      <rects>
        <_>
          11 6 3 3 -1.</_>
        <_>
          12 6 1 3 3.</_></rects>
      <tilted>0</tilted></_>
    <_>
      <rects>
        <_>
          11 6 1 9 -1.</_>
        <_>
          11 9 1 3 3.</_></rects>
      <tilted>0</tilted></_>
    <_>
      <rects>
        <_>
          11 7 4 8 -1.</_>
        <_>
          11 11 4 4 2.</_></rects>
      <tilted>0</tilted></_>
    <_>
      <rects>
        <_>
          11 12 2 2 -1.</_>
        <_>
          11 12 1 1 2.</_>
        <_>
          12 13 1 1 2.</_></rects>
      <tilted>0</tilted></_>
    <_>
      <rects>
        <_>
          11 12 6 8 -1.</_>
        <_>
          11 12 3 4 2.</_>
        <_>
          14 16 3 4 2.</_></rects>
      <tilted>0</tilted></_>
    <_>
      <rects>
        <_>
          11 14 3 2 -1.</_>
        <_>
          12 14 1 2 3.</_></rects>
      <tilted>0</tilted></_>
    <_>
      <rects>
        <_>
          12 4 3 3 -1.</_>
        <_>
          13 4 1 3 3.</_></rects>
      <tilted>0</tilted></_>
    <_>
      <rects>
        <_>
          12 5 2 3 -1.</_>
        <_>
          13 5 1 3 2.</_></rects>
      <tilted>0</tilted></_>
    <_>
      <rects>
        <_>
          12 7 3 5 -1.</_>
        <_>
          13 7 1 5 3.</_></rects>
      <tilted>0</tilted></_>
    <_>
      <rects>
        <_>
          12 9 3 3 -1.</_>
        <_>
          13 9 1 3 3.</_></rects>
      <tilted>0</tilted></_>
    <_>
      <rects>
        <_>
          12 11 8 8 -1.</_>
        <_>
          12 11 4 4 2.</_>
        <_>
          16 15 4 4 2.</_></rects>
      <tilted>0</tilted></_>
    <_>
      <rects>
        <_>
          12 12 4 2 -1.</_>
        <_>
          12 12 2 1 2.</_>
        <_>
          14 13 2 1 2.</_></rects>
      <tilted>0</tilted></_>
    <_>
      <rects>
        <_>
          13 2 1 18 -1.</_>
        <_>
          13 8 1 6 3.</_></rects>
      <tilted>0</tilted></_>
    <_>
      <rects>
        <_>
          13 4 3 4 -1.</_>
        <_>
          14 4 1 4 3.</_></rects>
      <tilted>0</tilted></_>
    <_>
      <rects>
        <_>
          13 8 3 5 -1.</_>
        <_>
          14 8 1 5 3.</_></rects>
      <tilted>0</tilted></_>
    <_>
      <rects>
        <_>
          13 8 4 7 -1.</_>
        <_>
          15 8 2 7 2.</_></rects>
      <tilted>0</tilted></_>
    <_>
      <rects>
        <_>
          13 8 5 6 -1.</_>
        <_>
          13 10 5 2 3.</_></rects>
      <tilted>0</tilted></_>
    <_>
      <rects>
        <_>
          13 9 3 3 -1.</_>
        <_>
          14 9 1 3 3.</_></rects>
      <tilted>0</tilted></_>
    <_>
      <rects>
        <_>
          13 9 2 6 -1.</_>
        <_>
          13 9 1 3 2.</_>
        <_>
          14 12 1 3 2.</_></rects>
      <tilted>0</tilted></_>
    <_>
      <rects>
        <_>
          14 3 2 10 -1.</_>
        <_>
          14 3 1 5 2.</_>
        <_>
          15 8 1 5 2.</_></rects>
      <tilted>0</tilted></_>
    <_>
      <rects>
        <_>
          14 4 2 8 -1.</_>
        <_>
          14 4 1 4 2.</_>
        <_>
          15 8 1 4 2.</_></rects>
      <tilted>0</tilted></_>
    <_>
      <rects>
        <_>
          14 6 4 6 -1.</_>
        <_>
          14 8 4 2 3.</_></rects>
      <tilted>0</tilted></_>
    <_>
      <rects>
        <_>
          14 8 3 3 -1.</_>
        <_>
          14 9 3 1 3.</_></rects>
      <tilted>0</tilted></_>
    <_>
      <rects>
        <_>
          14 9 3 3 -1.</_>
        <_>
          15 9 1 3 3.</_></rects>
      <tilted>0</tilted></_>
    <_>
      <rects>
        <_>
          14 9 3 4 -1.</_>
        <_>
          15 9 1 4 3.</_></rects>
      <tilted>0</tilted></_>
    <_>
      <rects>
        <_>
          14 11 2 2 -1.</_>
        <_>
          15 11 1 2 2.</_></rects>
      <tilted>0</tilted></_>
    <_>
      <rects>
        <_>
          14 13 3 6 -1.</_>
        <_>
          15 13 1 6 3.</_></rects>
      <tilted>0</tilted></_>
    <_>
      <rects>
        <_>
          15 8 2 2 -1.</_>
        <_>
          15 9 2 1 2.</_></rects>
      <tilted>0</tilted></_>
    <_>
      <rects>
        <_>
          15 8 2 3 -1.</_>
        <_>
          15 9 2 1 3.</_></rects>
      <tilted>0</tilted></_>
    <_>
      <rects>
        <_>
          15 8 3 3 -1.</_>
        <_>
          15 9 3 1 3.</_></rects>
      <tilted>0</tilted></_>
    <_>
      <rects>
        <_>
          15 9 2 9 -1.</_>
        <_>
          16 9 1 9 2.</_></rects>
      <tilted>0</tilted></_>
    <_>
      <rects>
        <_>
          15 9 3 3 -1.</_>
        <_>
          15 10 3 1 3.</_></rects>
      <tilted>0</tilted></_>
    <_>
      <rects>
        <_>
          15 11 2 2 -1.</_>
        <_>
          15 12 2 1 2.</_></rects>
      <tilted>0</tilted></_>
    <_>
      <rects>
        <_>
          15 11 2 3 -1.</_>
        <_>
          15 12 2 1 3.</_></rects>
      <tilted>0</tilted></_>
    <_>
      <rects>
        <_>
          15 11 3 3 -1.</_>
        <_>
          15 12 3 1 3.</_></rects>
      <tilted>0</tilted></_>
    <_>
      <rects>
        <_>
          16 2 4 13 -1.</_>
        <_>
          18 2 2 13 2.</_></rects>
      <tilted>0</tilted></_>
    <_>
      <rects>
        <_>
          16 5 2 4 -1.</_>
        <_>
          16 5 1 2 2.</_>
        <_>
          17 7 1 2 2.</_></rects>
      <tilted>0</tilted></_>
    <_>
      <rects>
        <_>
          16 9 4 1 -1.</_>
        <_>
          18 9 2 1 2.</_></rects>
      <tilted>0</tilted></_>
    <_>
      <rects>
        <_>
          16 9 2 3 -1.</_>
        <_>
          16 10 2 1 3.</_></rects>
      <tilted>0</tilted></_>
    <_>
      <rects>
        <_>
          16 9 4 4 -1.</_>
        <_>
          18 9 2 4 2.</_></rects>
      <tilted>0</tilted></_>
    <_>
      <rects>
        <_>
          17 7 2 3 -1.</_>
        <_>
          18 7 1 3 2.</_></rects>
      <tilted>0</tilted></_>
    <_>
      <rects>
        <_>
          17 11 3 6 -1.</_>
        <_>
          17 14 3 3 2.</_></rects>
      <tilted>0</tilted></_>
    <_>
      <rects>
        <_>
          18 0 2 2 -1.</_>
        <_>
          19 0 1 2 2.</_></rects>
      <tilted>0</tilted></_>
    <_>
      <rects>
        <_>
          18 4 2 10 -1.</_>
        <_>
          18 4 1 5 2.</_>
        <_>
          19 9 1 5 2.</_></rects>
      <tilted>0</tilted></_>
    <_>
      <rects>
        <_>
          18 5 2 6 -1.</_>
        <_>
          18 5 1 3 2.</_>
        <_>
          19 8 1 3 2.</_></rects>
      <tilted>0</tilted></_>
    <_>
      <rects>
        <_>
          18 5 2 7 -1.</_>
        <_>
          19 5 1 7 2.</_></rects>
      <tilted>0</tilted></_>
    <_>
      <rects>
        <_>
          18 6 2 8 -1.</_>
        <_>
          18 6 1 4 2.</_>
        <_>
          19 10 1 4 2.</_></rects>
      <tilted>0</tilted></_></features></cascade>
</opencv_storage>
